Language model created by QuickLM on Fri Oct 21 02:51:00 EDT 2016
Copyright (c) 1996-2010 Carnegie Mellon University and Alexander I. Rudnicky

The model is in standard ARPA format, designed by Doug Paul while he was at MITRE.

The code that was used to produce this language model is available in Open Source.
Please visit http://www.speech.cs.cmu.edu/tools/ for more information

The (fixed) discount mass is 0.5. The backoffs are computed using the ratio method.
This model based on a corpus of 12 sentences and 14 words

\data\
ngram 1=14
ngram 2=24
ngram 3=15

\1-grams:
-0.8129 </s> -0.3010
-0.8129 <s> -0.2151
-1.5911 AWAY -0.2285
-1.8921 BAD -0.2285
-1.8921 BETTER -0.2285
-1.5911 CLOSER -0.2285
-1.5911 COME -0.2840
-1.8921 FAR -0.2285
-1.8921 GO -0.2897
-1.8921 GOOD -0.2285
-1.8921 HALT -0.2285
-1.8921 NEAR -0.2285
-1.8921 OK -0.2285
-1.8921 STOP -0.2285

\2-grams:
-1.3802 <s> AWAY 0.0000
-1.3802 <s> BAD 0.0000
-1.3802 <s> BETTER 0.0000
-1.3802 <s> CLOSER 0.0000
-1.0792 <s> COME 0.0000
-1.3802 <s> FAR 0.0000
-1.3802 <s> GO 0.0000
-1.3802 <s> GOOD 0.0000
-1.3802 <s> HALT 0.0000
-1.3802 <s> OK 0.0000
-1.3802 <s> STOP 0.0000
-0.3010 AWAY </s> -0.3010
-0.3010 BAD </s> -0.3010
-0.3010 BETTER </s> -0.3010
-0.3010 CLOSER </s> -0.3010
-0.6021 COME CLOSER 0.0000
-0.6021 COME NEAR 0.0000
-0.3010 FAR </s> -0.3010
-0.3010 GO AWAY 0.0000
-0.3010 GOOD </s> -0.3010
-0.3010 HALT </s> -0.3010
-0.3010 NEAR </s> -0.3010
-0.3010 OK </s> -0.3010
-0.3010 STOP </s> -0.3010

\3-grams:
-0.3010 <s> AWAY </s>
-0.3010 <s> BAD </s>
-0.3010 <s> BETTER </s>
-0.3010 <s> CLOSER </s>
-0.6021 <s> COME CLOSER
-0.6021 <s> COME NEAR
-0.3010 <s> FAR </s>
-0.3010 <s> GO AWAY
-0.3010 <s> GOOD </s>
-0.3010 <s> HALT </s>
-0.3010 <s> OK </s>
-0.3010 <s> STOP </s>
-0.3010 COME CLOSER </s>
-0.3010 COME NEAR </s>
-0.3010 GO AWAY </s>

\end\
